<?xml version="1.0"?>
<opencv_storage>
<cascade>
  <stageType>BOOST</stageType>
  <featureType>HAAR</featureType>
  <height>24</height>
  <width>24</width>
  <stageParams>
    <boostType>GAB</boostType>
    <minHitRate>9.9500000476837158e-01</minHitRate>
    <maxFalseAlarm>5.0000000000000000e-01</maxFalseAlarm>
    <weightTrimRate>9.4999999999999996e-01</weightTrimRate>
    <maxDepth>1</maxDepth>
    <maxWeakCount>100</maxWeakCount></stageParams>
  <featureParams>
    <maxCatCount>0</maxCatCount>
    <featSize>1</featSize>
    <mode>BASIC</mode></featureParams>
  <stageNum>13</stageNum>
  <stages>
    <!-- stage 0 -->
    <_>
      <maxWeakCount>2</maxWeakCount>
      <stageThreshold>-8.3436852693557739e-01</stageThreshold>
      <weakClassifiers>
        <_>
          <internalNodes>
            0 -1 31 3.9513278752565384e-03</internalNodes>
          <leafValues>
            -9.2635661363601685e-01 6.4705884456634521e-01</leafValues></_>
        <_>
          <internalNodes>
            0 -1 9 -6.7353020422160625e-03</internalNodes>
          <leafValues>
            9.1988064348697662e-02 -9.6754807233810425e-01</leafValues></_></weakClassifiers></_>
    <!-- stage 1 -->
    <_>
      <maxWeakCount>3</maxWeakCount>
      <stageThreshold>-1.5238192081451416e+00</stageThreshold>
      <weakClassifiers>
        <_>
          <internalNodes>
            0 -1 12 8.3787385374307632e-03</internalNodes>
          <leafValues>
            -9.1923075914382935e-01 8.4615385532379150e-01</leafValues></_>
        <_>
          <internalNodes>
            0 -1 22 -6.4730958547443151e-04</internalNodes>
          <leafValues>
            2.7971097826957703e-01 -8.7448954582214355e-01</leafValues></_>
        <_>
          <internalNodes>
            0 -1 19 -1.2967512011528015e-02</internalNodes>
          <leafValues>
            3.3522048592567444e-01 -8.8429939746856689e-01</leafValues></_></weakClassifiers></_>
    <!-- stage 2 -->
    <_>
      <maxWeakCount>4</maxWeakCount>
      <stageThreshold>-1.4799443483352661e+00</stageThreshold>
      <weakClassifiers>
        <_>
          <internalNodes>
            0 -1 26 1.0419260710477829e-02</internalNodes>
          <leafValues>
            -9.2678225040435791e-01 1.</leafValues></_>
        <_>
          <internalNodes>
            0 -1 24 3.1749268528074026e-03</internalNodes>
          <leafValues>
            -7.9128521680831909e-01 8.0233049392700195e-01</leafValues></_>
        <_>
          <internalNodes>
            0 -1 27 1.6264985315501690e-03</internalNodes>
          <leafValues>
            -5.6892740726470947e-01 7.0610499382019043e-01</leafValues></_>
        <_>
          <internalNodes>
            0 -1 30 2.8527607209980488e-03</internalNodes>
          <leafValues>
            -4.6798178553581238e-01 8.6951935291290283e-01</leafValues></_></weakClassifiers></_>
    <!-- stage 3 -->
    <_>
      <maxWeakCount>4</maxWeakCount>
      <stageThreshold>-1.3512675762176514e+00</stageThreshold>
      <weakClassifiers>
        <_>
          <internalNodes>
            0 -1 8 7.3029976338148117e-03</internalNodes>
          <leafValues>
            -9.0822178125381470e-01 8.0000001192092896e-01</leafValues></_>
        <_>
          <internalNodes>
            0 -1 4 -1.8686875700950623e-02</internalNodes>
          <leafValues>
            6.8628591299057007e-01 -6.9703382253646851e-01</leafValues></_>
        <_>
          <internalNodes>
            0 -1 33 -3.5881288349628448e-03</internalNodes>
          <leafValues>
            8.6511635780334473e-01 -3.6872604489326477e-01</leafValues></_>
        <_>
          <internalNodes>
            0 -1 5 -3.4253250807523727e-02</internalNodes>
          <leafValues>
            6.2271404266357422e-01 -5.7877504825592041e-01</leafValues></_></weakClassifiers></_>
    <!-- stage 4 -->
    <_>
      <maxWeakCount>4</maxWeakCount>
      <stageThreshold>-1.7422823905944824e+00</stageThreshold>
      <weakClassifiers>
        <_>
          <internalNodes>
            0 -1 29 -8.8072177022695541e-03</internalNodes>
          <leafValues>
            6.6666668653488159e-01 -9.1170823574066162e-01</leafValues></_>
        <_>
          <internalNodes>
            0 -1 16 1.1171351186931133e-02</internalNodes>
          <leafValues>
            -6.7509108781814575e-01 7.5864422321319580e-01</leafValues></_>
        <_>
          <internalNodes>
            0 -1 40 1.5158266760408878e-03</internalNodes>
          <leafValues>
            -7.2267806529998779e-01 3.4169912338256836e-01</leafValues></_>
        <_>
          <internalNodes>
            0 -1 36 3.7296272814273834e-02</internalNodes>
          <leafValues>
            -4.9718207120895386e-01 5.6991887092590332e-01</leafValues></_></weakClassifiers></_>
    <!-- stage 5 -->
    <_>
      <maxWeakCount>4</maxWeakCount>
      <stageThreshold>-1.1276638507843018e+00</stageThreshold>
      <weakClassifiers>
        <_>
          <internalNodes>
            0 -1 28 -9.2317266389727592e-03</internalNodes>
          <leafValues>
            4.4444444775581360e-01 -9.2233008146286011e-01</leafValues></_>
        <_>
          <internalNodes>
            0 -1 8 3.8658902049064636e-03</internalNodes>
          <leafValues>
            -7.0381098985671997e-01 6.4521378278732300e-01</leafValues></_>
        <_>
          <internalNodes>
            0 -1 2 2.1727284183725715e-04</internalNodes>
          <leafValues>
            2.1817113459110260e-01 -9.2219054698944092e-01</leafValues></_>
        <_>
          <internalNodes>
            0 -1 6 -9.2268091975711286e-05</internalNodes>
          <leafValues>
            2.8030610084533691e-01 -8.6021566390991211e-01</leafValues></_></weakClassifiers></_>
    <!-- stage 6 -->
    <_>
      <maxWeakCount>3</maxWeakCount>
      <stageThreshold>-1.3718466758728027e+00</stageThreshold>
      <weakClassifiers>
        <_>
          <internalNodes>
            0 -1 18 1.3530855067074299e-02</internalNodes>
          <leafValues>
            -9.0476191043853760e-01 1.</leafValues></_>
        <_>
          <internalNodes>
            0 -1 25 -5.3542973473668098e-03</internalNodes>
          <leafValues>
            6.5509986877441406e-01 -7.0077091455459595e-01</leafValues></_>
        <_>
          <internalNodes>
            0 -1 32 6.0412753373384476e-04</internalNodes>
          <leafValues>
            2.3368619382381439e-01 -8.8785600662231445e-01</leafValues></_></weakClassifiers></_>
    <!-- stage 7 -->
    <_>
      <maxWeakCount>3</maxWeakCount>
      <stageThreshold>-1.3542242050170898e+00</stageThreshold>
      <weakClassifiers>
        <_>
          <internalNodes>
            0 -1 13 -9.7469128668308258e-03</internalNodes>
          <leafValues>
            8.3333331346511841e-01 -9.1554701328277588e-01</leafValues></_>
        <_>
          <internalNodes>
            0 -1 34 2.1314227487891912e-03</internalNodes>
          <leafValues>
            -7.0036506652832031e-01 6.7745018005371094e-01</leafValues></_>
        <_>
          <internalNodes>
            0 -1 7 4.5127300545573235e-03</internalNodes>
          <leafValues>
            2.6168784499168396e-01 -9.5838755369186401e-01</leafValues></_></weakClassifiers></_>
    <!-- stage 8 -->
    <_>
      <maxWeakCount>3</maxWeakCount>
      <stageThreshold>-1.2957067489624023e+00</stageThreshold>
      <weakClassifiers>
        <_>
          <internalNodes>
            0 -1 14 -5.7071573100984097e-03</internalNodes>
          <leafValues>
            4.6666666865348816e-01 -9.1505789756774902e-01</leafValues></_>
        <_>
          <internalNodes>
            0 -1 1 1.6388389049097896e-03</internalNodes>
          <leafValues>
            -7.1867126226425171e-01 4.8435136675834656e-01</leafValues></_>
        <_>
          <internalNodes>
            0 -1 10 1.9717977920663543e-05</internalNodes>
          <leafValues>
            -7.0849972963333130e-01 3.3802250027656555e-01</leafValues></_></weakClassifiers></_>
    <!-- stage 9 -->
    <_>
      <maxWeakCount>4</maxWeakCount>
      <stageThreshold>-1.7270226478576660e+00</stageThreshold>
      <weakClassifiers>
        <_>
          <internalNodes>
            0 -1 23 6.8922294303774834e-03</internalNodes>
          <leafValues>
            -9.0839695930480957e-01 1.</leafValues></_>
        <_>
          <internalNodes>
            0 -1 25 -5.2014319226145744e-03</internalNodes>
          <leafValues>
            4.2210578918457031e-01 -7.2849649190902710e-01</leafValues></_>
        <_>
          <internalNodes>
            0 -1 20 -1.1455792002379894e-02</internalNodes>
          <leafValues>
            4.6142536401748657e-01 -6.4525568485260010e-01</leafValues></_>
        <_>
          <internalNodes>
            0 -1 0 7.0418760878965259e-04</internalNodes>
          <leafValues>
            -5.5155462026596069e-01 5.7571113109588623e-01</leafValues></_></weakClassifiers></_>
    <!-- stage 10 -->
    <_>
      <maxWeakCount>4</maxWeakCount>
      <stageThreshold>-1.8435684442520142e+00</stageThreshold>
      <weakClassifiers>
        <_>
          <internalNodes>
            0 -1 17 4.6497248113155365e-03</internalNodes>
          <leafValues>
            -9.1938579082489014e-01 1.</leafValues></_>
        <_>
          <internalNodes>
            0 -1 16 1.2127432040870190e-02</internalNodes>
          <leafValues>
            -7.3772305250167847e-01 1.</leafValues></_>
        <_>
          <internalNodes>
            0 -1 11 3.2133641070686281e-04</internalNodes>
          <leafValues>
            5.4872852563858032e-01 -6.0676562786102295e-01</leafValues></_>
        <_>
          <internalNodes>
            0 -1 21 2.4412876518908888e-04</internalNodes>
          <leafValues>
            4.8110857605934143e-01 -7.3518806695938110e-01</leafValues></_></weakClassifiers></_>
    <!-- stage 11 -->
    <_>
      <maxWeakCount>4</maxWeakCount>
      <stageThreshold>-1.9311206340789795e+00</stageThreshold>
      <weakClassifiers>
        <_>
          <internalNodes>
            0 -1 15 -7.6960166916251183e-04</internalNodes>
          <leafValues>
            1. -9.3050193786621094e-01</leafValues></_>
        <_>
          <internalNodes>
            0 -1 3 -2.7083314955234528e-02</internalNodes>
          <leafValues>
            1. -7.9252684116363525e-01</leafValues></_>
        <_>
          <internalNodes>
            0 -1 39 1.9330729264765978e-03</internalNodes>
          <leafValues>
            -7.1081894636154175e-01 5.7653301954269409e-01</leafValues></_>
        <_>
          <internalNodes>
            0 -1 38 1.2449190253391862e-03</internalNodes>
          <leafValues>
            5.0272715091705322e-01 -9.7950053215026855e-01</leafValues></_></weakClassifiers></_>
    <!-- stage 12 -->
    <_>
      <maxWeakCount>3</maxWeakCount>
      <stageThreshold>-9.0758472681045532e-01</stageThreshold>
      <weakClassifiers>
        <_>
          <internalNodes>
            0 -1 35 3.5619939444586635e-04</internalNodes>
          <leafValues>
            -9.6078431606292725e-01 1.</leafValues></_>
        <_>
          <internalNodes>
            0 -1 15 -3.9486755849793553e-04</internalNodes>
          <leafValues>
            1. -9.4680041074752808e-01</leafValues></_>
        <_>
          <internalNodes>
            0 -1 37 2.5388353969901800e-03</internalNodes>
          <leafValues>
            -8.3521831035614014e-01 1.</leafValues></_></weakClassifiers></_></stages>
  <features>
    <_>
      <rects>
        <_>
          0 11 1 12 -1.</_>
        <_>
          0 17 1 6 2.</_></rects>
      <tilted>0</tilted></_>
    <_>
      <rects>
        <_>
          0 13 2 1 -1.</_>
        <_>
          1 13 1 1 2.</_></rects>
      <tilted>0</tilted></_>
    <_>
      <rects>
        <_>
          0 23 6 1 -1.</_>
        <_>
          2 23 2 1 3.</_></rects>
      <tilted>0</tilted></_>
    <_>
      <rects>
        <_>
          1 0 4 11 -1.</_>
        <_>
          3 0 2 11 2.</_></rects>
      <tilted>0</tilted></_>
    <_>
      <rects>
        <_>
          1 3 3 8 -1.</_>
        <_>
          2 3 1 8 3.</_></rects>
      <tilted>0</tilted></_>
    <_>
      <rects>
        <_>
          1 3 12 10 -1.</_>
        <_>
          5 3 4 10 3.</_></rects>
      <tilted>0</tilted></_>
    <_>
      <rects>
        <_>
          3 14 1 9 -1.</_>
        <_>
          3 17 1 3 3.</_></rects>
      <tilted>0</tilted></_>
    <_>
      <rects>
        <_>
          3 16 2 8 -1.</_>
        <_>
          3 20 2 4 2.</_></rects>
      <tilted>0</tilted></_>
    <_>
      <rects>
        <_>
          3 19 1 3 -1.</_>
        <_>
          3 20 1 1 3.</_></rects>
      <tilted>0</tilted></_>
    <_>
      <rects>
        <_>
          4 0 20 2 -1.</_>
        <_>
          4 1 20 1 2.</_></rects>
      <tilted>0</tilted></_>
    <_>
      <rects>
        <_>
          4 5 2 6 -1.</_>
        <_>
          5 5 1 6 2.</_></rects>
      <tilted>0</tilted></_>
    <_>
      <rects>
        <_>
          4 13 1 6 -1.</_>
        <_>
          4 15 1 2 3.</_></rects>
      <tilted>0</tilted></_>
    <_>
      <rects>
        <_>
          5 13 2 3 -1.</_>
        <_>
          5 14 2 1 3.</_></rects>
      <tilted>0</tilted></_>
    <_>
      <rects>
        <_>
          5 14 2 3 -1.</_>
        <_>
          5 15 2 1 3.</_></rects>
      <tilted>0</tilted></_>
    <_>
      <rects>
        <_>
          5 17 1 3 -1.</_>
        <_>
          5 18 1 1 3.</_></rects>
      <tilted>0</tilted></_>
    <_>
      <rects>
        <_>
          5 18 4 2 -1.</_>
        <_>
          5 18 2 1 2.</_>
        <_>
          7 19 2 1 2.</_></rects>
      <tilted>0</tilted></_>
    <_>
      <rects>
        <_>
          7 12 2 3 -1.</_>
        <_>
          7 13 2 1 3.</_></rects>
      <tilted>0</tilted></_>
    <_>
      <rects>
        <_>
          7 13 1 3 -1.</_>
        <_>
          7 14 1 1 3.</_></rects>
      <tilted>0</tilted></_>
    <_>
      <rects>
        <_>
          7 15 2 3 -1.</_>
        <_>
          7 16 2 1 3.</_></rects>
      <tilted>0</tilted></_>
    <_>
      <rects>
        <_>
          9 0 3 15 -1.</_>
        <_>
          9 5 3 5 3.</_></rects>
      <tilted>0</tilted></_>
    <_>
      <rects>
        <_>
          9 1 3 8 -1.</_>
        <_>
          9 5 3 4 2.</_></rects>
      <tilted>0</tilted></_>
    <_>
      <rects>
        <_>
          9 2 2 2 -1.</_>
        <_>
          10 2 1 2 2.</_></rects>
      <tilted>0</tilted></_>
    <_>
      <rects>
        <_>
          9 5 2 2 -1.</_>
        <_>
          9 5 1 1 2.</_>
        <_>
          10 6 1 1 2.</_></rects>
      <tilted>0</tilted></_>
    <_>
      <rects>
        <_>
          9 12 1 3 -1.</_>
        <_>
          9 13 1 1 3.</_></rects>
      <tilted>0</tilted></_>
    <_>
      <rects>
        <_>
          10 11 1 2 -1.</_>
        <_>
          10 12 1 1 2.</_></rects>
      <tilted>0</tilted></_>
    <_>
      <rects>
        <_>
          11 8 1 3 -1.</_>
        <_>
          11 9 1 1 3.</_></rects>
      <tilted>0</tilted></_>
    <_>
      <rects>
        <_>
          11 9 2 3 -1.</_>
        <_>
          11 10 2 1 3.</_></rects>
      <tilted>0</tilted></_>
    <_>
      <rects>
        <_>
          11 11 3 1 -1.</_>
        <_>
          12 11 1 1 3.</_></rects>
      <tilted>0</tilted></_>
    <_>
      <rects>
        <_>
          11 13 2 3 -1.</_>
        <_>
          11 14 2 1 3.</_></rects>
      <tilted>0</tilted></_>
    <_>
      <rects>
        <_>
          12 10 1 3 -1.</_>
        <_>
          12 11 1 1 3.</_></rects>
      <tilted>0</tilted></_>
    <_>
      <rects>
        <_>
          12 10 4 2 -1.</_>
        <_>
          12 10 2 1 2.</_>
        <_>
          14 11 2 1 2.</_></rects>
      <tilted>0</tilted></_>
    <_>
      <rects>
        <_>
          13 10 2 2 -1.</_>
        <_>
          13 10 1 1 2.</_>
        <_>
          14 11 1 1 2.</_></rects>
      <tilted>0</tilted></_>
    <_>
      <rects>
        <_>
          14 6 8 2 -1.</_>
        <_>
          14 6 4 1 2.</_>
        <_>
          18 7 4 1 2.</_></rects>
      <tilted>0</tilted></_>
    <_>
      <rects>
        <_>
          14 7 2 1 -1.</_>
        <_>
          15 7 1 1 2.</_></rects>
      <tilted>0</tilted></_>
    <_>
      <rects>
        <_>
          14 10 2 1 -1.</_>
        <_>
          15 10 1 1 2.</_></rects>
      <tilted>0</tilted></_>
    <_>
      <rects>
        <_>
          15 18 3 2 -1.</_>
        <_>
          16 18 1 2 3.</_></rects>
      <tilted>0</tilted></_>
    <_>
      <rects>
        <_>
          16 0 8 11 -1.</_>
        <_>
          20 0 4 11 2.</_></rects>
      <tilted>0</tilted></_>
    <_>
      <rects>
        <_>
          18 12 6 5 -1.</_>
        <_>
          21 12 3 5 2.</_></rects>
      <tilted>0</tilted></_>
    <_>
      <rects>
        <_>
          18 22 6 1 -1.</_>
        <_>
          21 22 3 1 2.</_></rects>
      <tilted>0</tilted></_>
    <_>
      <rects>
        <_>
          20 10 4 7 -1.</_>
        <_>
          22 10 2 7 2.</_></rects>
      <tilted>0</tilted></_>
    <_>
      <rects>
        <_>
          22 6 2 8 -1.</_>
        <_>
          23 6 1 8 2.</_></rects>
      <tilted>0</tilted></_></features></cascade>
</opencv_storage>
